[
  {
    "model_id": "microsoft/DialoGPT-small",
    "timestamp": "2025-09-21T14:08:03.861065",
    "original_parameters": 175620096,
    "compressed_parameters": 43415,
    "compression_ratio": "985.6:1",
    "compressed_layers": {
      "transformer.wte.weight": {
        "quantum_states": [
          1.299278260593972,
          2.1449667169637068,
          1.1392758375458716,
          -1.4512107019866742,
          0.15914416733266085,
          2.260255647132211,
          -0.5016853484048998,
          0.19534585427370574,
          -0.1431969975610087,
          0.6092856363197717,
          1.0596897449716822,
          -0.9290294014029528,
          -0.7996557758379428,
          0.23763056269070285,
          0.9799010065205226,
          0.2952539159784571,
          -1.2868519387701192,
          -0.4612739935888356,
          -0.49755823717085046,
          0.44628529895253927,
          1.148358232082567,
          1.9007557499074497,
          -1.5649772006089602,
          1.2476410740164103,
          0.3811643953562463,
          1.443611550827049,
          -0.8149373957269329,
          -2.6512428570129387,
          -2.1267958050251132,
          -0.014871300278654995,
          0.6553762990814723,
          1.1238522317136097,
          -0.8133042294857171,
          -0.1808075472300939,
          -1.0996197012934084,
          0.14488215540718632,
          1.5766268577887732,
          -3.04672842855228,
          -1.3839724630168628,
          1.0292598727307802,
          -0.6905569423729301,
          0.6445107849198003,
          -0.34042552596299985,
          0.22223582942010395,
          -0.02704259070719052,
          0.3995716250601545,
          -0.4175973759224472,
          2.3282443812238585,
          -0.3950034104096186,
          -1.7937647953068858,
          -0.7467436237638599,
          2.2649144935442305,
          0.9753028037046655,
          -1.555772612385087,
          0.13845139307858098,
          -0.2509093519635014,
          -0.3689729929364491,
          0.4992358381923237,
          -0.9931733347381204,
          -0.6482239799269401,
          1.1141858051835027,
          -0.6169738590500538,
          0.8707128178762452,
          -0.6039399835593812,
          -0.47193149507712856,
          0.07634262173473066,
          1.6053712656425623,
          2.090173265003814,
          -1.2057576093072464,
          -0.03686363283051849,
          0.18844195409995318,
          -0.2651668038069503,
          -0.30003403921081295,
          0.7393895995055247,
          0.881990919249267,
          0.637685029296672,
          1.3606350946759496,
          -0.6813217884286785,
          0.05537493993099798,
          -2.5103776531090136,
          -0.5007766322704054,
          -0.6268649736685118,
          0.5893226365455908,
          -1.7141297537368927,
          -0.5458111931228106,
          0.19432384068392536,
          0.012163436045112608,
          1.20590685268195,
          0.6321901793663497,
          1.361065244428231,
          -1.2652935612473377,
          0.14500663198520294,
          0.5683179020733983,
          1.363817489047503,
          1.5197191989456313,
          0.5848287826027314,
          -0.25651475124407075,
          -1.7672972723299951,
          -1.4601707243990698,
          1.793420502519304,
          0.6213294551478016,
          0.5232505632982233,
          1.564040700966822,
          0.46641837306600015,
          1.4253704286673168,
          1.0144997985736846,
          0.5888614683959913,
          2.0210805252019526,
          0.883246591270744,
          -1.059440667327405,
          -0.12355954634425488,
          -0.02655859049910581,
          1.0516449097716913,
          0.4127064422662855,
          -0.14309482461885262,
          2.516874403368079,
          0.059858758903157776,
          -0.4106614301484396,
          -0.5270054253235972,
          -0.17242905775978382,
          0.6603704150382771,
          0.6757656728502728,
          0.13748085621303133,
          0.39215265266993504,
          0.3384274868467137,
          0.18575223580354994,
          0.8678568251351991,
          -1.2118821304252454,
          -0.060915206813076606,
          2.0961593544235946,
          -1.0000328080955097,
          -0.5566477981933784,
          -0.7459831381044205,
          0.5130176495908022,
          1.373503948352138,
          1.5258155594400178,
          -0.532045528112683,
          -1.4571003796798325,
          0.3108567395904549,
          -0.22090185996896702,
          -0.3034318677359155,
          1.563059385161279,
          0.9347471716975695,
          -1.3603365855693312,
          -1.4505885636388982,
          -0.09288691858532792,
          -0.13303389092217618,
          1.9472096372865308,
          -0.23480641196541574,
          0.8201368406160974,
          0.411694507093328,
          -0.009416855663739858,
          0.3453589548470536,
          0.703397123540913,
          1.1362344300706748,
          -0.6915066552789819,
          2.0034031402747114,
          -1.0845219787987836,
          0.43479799445331846,
          -1.4411810696319753,
          1.6733227368378076,
          -0.05001068896241761,
          -0.12730743085572457,
          -0.6289252476612165,
          1.4206159159028997,
          0.9914148437236495,
          0.9994121542509592,
          -1.614750888307157,
          -0.95432253525241,
          -1.4313354789587487,
          1.4066918879310477,
          -0.8691002358790534,
          -0.40254579315762923,
          0.8568444502540987,
          0.3917496413350699,
          -0.6419305475963534,
          -0.015906984734864786,
          0.9776793583723316,
          0.590494170408478,
          -0.0489576786781909,
          -0.19693490358066226,
          -0.7372221828954394,
          -0.49534467537289223,
          -2.072952502078563,
          2.4160690827425135,
          1.5096422264184646,
          -1.229254021949961,
          0.703346375970267,
          -0.4038905300134487,
          -0.5851781674765498,
          0.47314725412640507,
          0.5510647380989093,
          1.5689055190822996,
          0.1003691745093514,
          0.64411108796179,
          -1.8548458132356775,
          0.6781762771951586,
          -0.9388378576302403,
          -0.8093211175819909,
          -0.7497550963211171,
          -0.5042119719579542,
          -1.3993094613241326,
          -0.738739470199755,
          -1.7065862770312785,
          0.10101296309742036,
          -1.1024018492565741,
          -0.35746888315334474,
          -0.010291596107227328,
          0.9859601470472298,
          -0.04331533339811385,
          -0.976252667236015,
          -0.17663946544749534,
          0.031294293050073425,
          0.7070169241660123,
          -1.4346234419585147,
          0.6180325436570105,
          -0.5551198493481521,
          0.7623847502043327,
          -0.7617482855430001,
          0.6687625999474113,
          -0.8060132591349626,
          1.537289558569728,
          -0.6989122730330609,
          -0.07449484379470278,
          1.1374755651530828,
          0.07392968233384373,
          -0.720478263310016,
          -0.6839832987960004,
          0.735493737363993,
          -0.3170556404933148,
          0.3668883860743343,
          0.28423639488851227,
          0.2607981928764169,
          -1.884454729587486,
          1.792238850912076,
          0.41843880051852594,
          1.8047709364893931,
          -0.03127495118004796,
          0.8645839288381896,
          1.686241007621309,
          -0.23837477066307833,
          -0.4431060149824208,
          0.22827187518242717,
          0.881317846029332,
          1.0469068117542717,
          0.44562003922383,
          0.516342389311992,
          0.584390498878883,
          -0.7148224707182573,
          -0.2088611654422367,
          1.5414543005776504,
          -3.5216842248761075,
          0.9184985940979167,
          -0.48359847769216807,
          1.31473964811429,
          0.7557583308753861,
          0.8013640228557074,
          1.6025894474633449,
          -0.0193697181506621,
          -1.3824078749268134,
          0.1900193320646643,
          0.3225629522958874,
          -0.1496384838151182,
          0.13730344267140093,
          1.416324554008564,
          0.4152001299033818,
          -1.070808326129198,
          -0.7739451035281903,
          1.0628659128970461,
          -0.4207590398427314,
          -0.4309560335604399,
          -0.6910278289140314,
          -0.10980943391108423,
          0.546460076049344,
          -0.8000300684210394,
          0.6524653439412492,
          0.08306054648873971,
          -2.333557817005433,
          0.05399869129428061,
          0.5595082120361553,
          -1.4672614182038972,
          0.3828842918428761,
          -1.205705735605483,
          0.6130527576059059,
          -0.26136786589065664,
          0.5324276159079553,
          -1.1321909007208861,
          1.9459138840611863,
          -0.6908420705266433,
          0.21803057900651235,
          0.012042732419683668,
          0.3722554393553386,
          0.0732490237820568,
          0.9624111668973389,
          0.44810460971667165,
          1.0555308264376573,
          -1.0663956755691542,
          -0.45344782927904714,
          -0.2753747802925158,
          0.15065681228719793,
          -1.5300044875928922,
          -0.6302979130502514,
          -0.9460342705406869,
          0.4358730181782084,
          -0.7934713041121303,
          -3.0886199855026333,
          -1.5395009129911201,
          1.1967327146232707,
          -1.0727188066307007,
          0.17537836062897516,
          -0.34190986997918404,
          -0.34365892911208623,
          0.0638261406814505,
          -2.662996703286321,
          -0.17717504006098836,
          -1.0251351175039058,
          -0.5217317271552411,
          0.8788650099349341,
          1.112715234637229,
          1.443077372248408,
          0.3357450156446714,
          -0.4760807581175198,
          1.3765920297774399,
          -0.511192032170648,
          0.08984065016896572,
          -0.050913667677225084,
          0.2361683265624119,
          0.7307466124695097,
          -0.4915607000678238,
          1.3559098289279916,
          -0.07386623112018029,
          0.11093423105684774,
          -1.57619954861467,
          -1.8044951621265748,
          0.09393587989208219,
          0.8596425502197609,
          0.0942981414566186,
          -1.6174833820882801,
          -0.2164475142661594,
          0.25465542683243375,
          -1.1504522072455068,
          -0.6107187332569881,
          0.0051079682504614156,
          0.7234704986859171,
          2.3082003297229083,
          0.43134192333931326,
          0.7059187004814613,
          0.4106580286600304,
          -1.7472789186441489,
          -0.27493173308791374,
          -1.778133108152535,
          0.046924209900051014,
          -0.29603589396018776,
          -1.4388391605827073,
          -1.4073252698769894,
          0.8487406311750099,
          0.6853501707244387,
          -0.9353469750608316,
          -0.27115289095728995,
          -0.6611188500835714,
          -0.8004161489131546,
          0.8980879520538021,
          0.8363787620431747,
          1.3014874418687146,
          0.05535691039204704,
          -0.1855368038428309,
          -1.9225798322207,
          0.5185131681658693,
          -0.3820736618388246,
          -0.12729522608604618,
          -0.9348937553840833,
          -0.029017407657061796,
          0.9037448296441013,
          -1.0984898815576145,
          -1.7352192078433737,
          -0.3825961228509085,
          0.04670464258865483,
          -0.8816817797741592,
          -1.7520136500671002,
          1.2250177338424932,
          1.2691456617918206,
          -0.01635851132288874,
          0.2432572687291564,
          -0.34960036630973007,
          0.45889130874141965,
          -0.7322478128526375,
          0.21125955159518825,
          -1.1816749019305104,
          0.8762102719025504,
          -1.276476885235456,
          0.14837521224006892,
          0.1549861774677791,
          -0.42936491744280475,
          0.8694380671525969,
          0.656852447564743,
          0.05281873887477981,
          0.27368644651263224,
          -0.04562813123338479,
          0.822702300861505,
          0.2041349006637413,
          -0.7337208658213258,
          -0.22312338645487265,
          1.1586874314383069,
          0.3439455818819457,
          -0.2821732971412025,
          1.3577601744643262,
          0.08818521293736606,
          0.8651653242497093,
          1.7953157848752572,
          -0.8570077899038822,
          -1.166536766925303,
          1.1535424843395132,
          0.5525970693614229,
          -1.0446179178013382,
          0.9786278638853733,
          -0.5093664227723489,
          0.42823243869314226,
          -0.6123708557480609,
          0.40657305192622123,
          0.7593079129537471,
          -0.9394339390888207,
          0.1582283796416451,
          -0.6593603273357749,
          -0.9204300704712167,
          -2.045311707937857,
          0.7559304626450903,
          0.589502181884319,
          1.0098012861856147,
          -0.21371928523470554,
          0.5564271790317198,
          -0.46821873758597377,
          2.0528080503417407,
          -0.4174052108686554,
          -0.8275235357170042,
          -1.2056015723406057,
          0.566423303923991,
          0.6221677873313726,
          -0.6286469651899257,
          0.555293841501181,
          -0.17773121091736038,
          0.7126921378211615,
          -0.4790375632119304,
          0.35414117860556654,
          -0.06635234388094498,
          0.08441733191297818,
          -0.18148462188254955,
          2.19777538710714,
          -0.18518748843292798,
          -1.170672635108323,
          1.1274108923020116,
          -2.274254669825541,
          -0.22251523580463764,
          -0.8403225071308709,
          0.17734176662352638,
          -0.386775200648726,
          -1.434311797100881,
          -0.45159717970208435,
          0.25294991953498164,
          -0.06413999594269462,
          -1.8812012395847781,
          -0.20119093049585757,
          -0.8108282345705431,
          0.6042450699510992,
          0.030923159265425458,
          1.366667314443746,
          -0.2481469801192039,
          -1.3251905405838675,
          -0.5048666467335914,
          1.3550122976961607,
          -0.6698901435737811,
          1.2359008646462672,
          -1.0988319128961754,
          0.10948432584519228,
          0.421432003621101,
          2.127476650078396,
          1.5269756325003168,
          -0.8269076100076967,
          -0.3222875978412912,
          0.0026596447036386565,
          1.9139333291388385,
          -0.1918420050368685,
          1.4587778815441066,
          0.17870813056098156,
          -0.8610169733924865,
          0.32793080761846993,
          0.06052643936206183,
          -0.35734662428940206,
          0.960821811273108,
          0.32534943384185006,
          0.8270777870897338,
          -0.6272048640199961,
          -0.15593831277961845,
          -0.35003928838286075,
          -0.5358947304754135,
          -0.3107881172762262,
          0.0008397774144603783,
          2.0224393299597563,
          1.7526794575780493,
          0.18329198284354878,
          1.8830500594051813,
          0.24702426541534178,
          -2.5133787858908976,
          -0.4702739443901047,
          0.07021315496757471,
          0.7019059742304942,
          -0.3683509076507024,
          -1.1704530110010496,
          1.2758731676044657,
          -0.10411146778822337,
          -0.6846988775027943,
          0.21423494463108264,
          0.128227197575204,
          -0.4614700735125563,
          0.8660454088284743,
          0.4469389017817713,
          2.069089296136102,
          -2.254971179565066,
          -1.660393644622313,
          0.32175754737252876,
          0.9373307566955515,
          -0.81128729559538,
          0.3313052898448791,
          -0.5401103320188191,
          1.1762443393857391,
          -1.9891104892692117,
          -0.4200995421293999,
          -1.6407718386533494,
          0.7783214027969164,
          0.9968039022396243,
          -0.6259249014143129,
          1.2726610961327265,
          0.6863000477997491,
          0.1766925600263631,
          -0.8787790970307953,
          1.0362231485675162,
          1.8106229151222146,
          0.9193441766558512,
          0.7587216785431878,
          0.6846267370644284,
          1.8517792558724226,
          -1.2627219607550706,
          0.9340765007333878,
          0.3869612696952794,
          0.686823109668391,
          0.7528730683090203,
          -0.8607622795738029,
          -0.08100684820403456,
          0.7443690696696508,
          -1.0653397333340309,
          -0.3874455033283764,
          -1.1119320225569196,
          1.2389467917926613,
          -1.2901293401965306,
          -1.488990632850172,
          -0.42390724451524203,
          0.9602736136803772,
          -0.38825537757343687,
          -1.5391287363877424,
          -1.3389699539526927,
          0.4071767038283577,
          0.6521361665818884,
          0.6073826635881755,
          -0.8779157062107095,
          -0.03896229330899991,
          2.5856418857691907,
          1.8820609703979971,
          -1.0625664071791134,
          -1.9643720320123774,
          0.01279558708138028,
          -0.1782704633292883,
          -0.23865639507067685,
          0.44532433767698354,
          -0.4194274724116999,
          -1.0833169694352291,
          0.3789078645339939,
          -0.5197373343711456,
          2.5418900265446616,
          -0.07783692263622839,
          -0.6378209328107376,
          -0.1476022204274287,
          -0.5610322285016602,
          -0.8886685711659122,
          0.890368562649314,
          0.8340724981826302,
          1.504753305735498,
          1.731968396448029,
          -1.8254664667074398,
          0.7491017575298063,
          -0.40343042006636115,
          1.185104392622906,
          0.0014851316286199135,
          1.338597617826745,
          -0.2697591047389196,
          1.0873061806260411,
          2.170585469577688,
          1.1312168314788267,
          -0.5562433241358714,
          0.2487589772031649,
          1.8431042440574146,
          3.1782592531182132,
          1.2000166166983328,
          -0.5735809023722045,
          0.1357063908359258,
          -0.9458206257522283,
          -0.7404617766934198,
          -1.504111289083951,
          0.06313053508938758,
          0.4389693435692025,
          -0.498990112091298,
          0.5886516647907453,
          -1.2173536831009175,
          -0.39120876418590267,
          -0.9440414871279093,
          -0.6273691924447626,
          -0.19261002558445958,
          1.3974898777791716,
          -0.2882753471322955,
          1.0192569751325122,
          -0.7054072611004406,
          1.828990685759494,
          1.092452802512195,
          1.0127363071920823,
          0.8583740937601433,
          0.8514615214490883,
          2.449987876003517,
          0.5825766656503071,
          -0.6693145450334449,
          -0.4437909717659981,
          0.3195557159665563,
          1.2327151717722356,
          0.5235849039314542,
          0.010943800269173826,
          1.3598213152657093,
          1.3669204710102016,
          -1.192547073686726,
          0.9708684533944726,
          -0.1677717769025317,
          0.48390081257236234,
          0.23278515291605065,
          0.7661919034889612,
          -0.34352096349700656,
          -1.1025780462995727,
          -0.339128180986499,
          0.5306626920414851,
          -0.732705496524901,
          0.718119432378355,
          1.974923373038398,
          0.45971898470753053,
          -1.1687020444671528,
          0.3835940140012654,
          -0.42121720049951755,
          -0.10418506147896209,
          0.2400878637076592,
          0.3866784631361595,
          -2.232067146109892,
          0.4059763785863896,
          -0.2790206220648758,
          -0.7506681630730148,
          -0.11847404068157859,
          0.1545637467124832,
          -0.06288563748362667,
          -1.225486129061111,
          1.2680806440804744,
          1.1308763055275448,
          0.44298396579275884,
          0.1892767667622308,
          1.3691389672934056,
          -0.09323448405651986,
          -1.4657448609080388,
          0.9155336912591189,
          -0.8065809074516708,
          -0.12274983054568828,
          2.0096846585495847,
          -0.8544103548419765,
          0.39629002289562587,
          1.6415315627909322,
          -0.003943075675307797,
          0.8280691611832102,
          -2.3849042844594974,
          -2.345704107783013,
          -0.485496903595593,
          0.04210332025191878,
          -0.3749754853117316,
          -0.4916848630435202,
          -0.25367020752410285,
          -0.840681916282219,
          -0.11474170729942908,
          -1.4194636580211262,
          2.0574401665442625,
          0.5371665683539272,
          -0.5431242430857129,
          0.008158988554343315,
          -0.9825993597806317,
          0.454985063530815,
          0.7569978775093331,
          0.15166583115599644,
          0.7089623244551533,
          4.033965203900094,
          -0.32753857064861924,
          -0.6789046518306091,
          0.2512463713695157,
          1.2920108205376104,
          -0.51400044064122,
          -0.561084957504545,
          -0.931256560415256,
          0.5091809913395168,
          0.015942887903369837,
          1.8973433173483651,
          -2.2651507190894407,
          -0.10788120377833213,
          0.9461673756980449,
          0.47819165188652474,
          1.682183071123245,
          -0.8253740890211656,
          -0.029392753983980426,
          -1.8510642827214785,
          1.0030515953044767,
          1.4239710137094441,
          0.009151082474645503,
          -0.1364680543125287,
          1.8807908473511055,
          -0.7825745258358618,
          -1.5729142238022944,
          -0.630917411057244,
          -2.373428315881499,
          0.5597925484161455,
          -1.5614117244775558,
          1.5060413125748071,
          0.42561252870173316,
          0.2731288560798124,
          -0.994094218003598,
          1.6590403613699622,
          1.0313284573901265,
          -0.9605272403361389,
          -1.413333101686074,
          -0.15877319479220697,
          -0.3011895986167179,
          -1.1044909998915793,
          -1.4435021652654263,
          0.6294701876328184,
          1.0388873128956435,
          -0.48436343706304613,
          -0.6549682950372322,
          0.10634311623795023,
          -2.5552095961880377,
          -0.7356445927929034,
          -1.1024421161577727,
          0.05807274476144263,
          -1.4520924501884789,
          -0.42932566143401557,
          -0.5868743648388934,
          -1.824946930944514,
          0.44141943853154597,
          -0.1785519326077378,
          -1.5544794197926717,
          -1.2391563124696459,
          0.7593303205337272,
          0.6624642733329099,
          -0.7844760055619001,
          -0.31468017068482684,
          0.8764060079551808,
          1.0613661536094035,
          0.7732201925241357,
          -0.9956461493182328,
          0.5745991645650765,
          1.2733504423198452,
          0.4841071180937739,
          -0.6419768945147092,
          1.986913525791007,
          0.5487667872533109,
          1.4138573401979095,
          2.2994475975356434,
          -0.5701374713263706,
          -0.3992390780710015,
          -0.8713542791167821,
          -0.6994777613800014,
          0.03411220957270732,
          0.31186880053168725,
          0.7791307375407915,
          -1.5683416213034946,
          1.5789202718308555,
          -2.1105142298498794,
          0.06537832496874083,
          -0.029668314866013894,
          1.6174668340007985,
          0.31261160444700914,
          -0.004708248233349419,
          0.993148979348809,
          -1.8690015853695934,
          0.5737316290977142,
          -0.05669111163753828,
          -0.27327385139020544,
          -1.8758774652883883,
          0.19172625195587292,
          1.0022539333462606,
          0.163634746267779,
          0.6687572722088545,
          -0.7551453798318892,
          0.5782337431746821,
          0.5188143630970639,
          0.04385545505414441,
          2.0720837652836157,
          -0.614339918355172,
          0.9361466340964633,
          -1.6099166041887836,
          1.0580366342410588,
          0.8843419792592571,
          -0.8849316173031585,
          1.3291789006983998,
          -0.6581196215647223,
          -0.5322766095991842,
          1.2341246000837,
          0.0908386687844397,
          0.42022015649424954,
          -1.306548189524053,
          -1.1782184640564985,
          -1.5864349369567448,
          -0.6373875545176128,
          0.26384098727891925,
          1.3124357079407403,
          0.3466397617799681,
          0.283932813690786,
          -0.17551258700282135,
          -0.29202981412664,
          0.15715329372216155,
          -0.4650485230592074,
          -0.2998731076896732,
          0.2800026583073159,
          -0.039576619231350404,
          0.7494477247566115,
          -0.2269340084350476,
          1.0249274706593923,
          1.3595691709062425,
          2.3736970722330497,
          -1.4374748162603488,
          1.8760751474339734,
          -0.4568526194297425,
          -0.6966914867665733,
          0.4109915360111186,
          -0.1668123330276922,
          -0.5570427860409003,
          0.46699972494203096,
          1.2959289926373079,
          1.334864665639334,
          0.5388102595971456,
          -0.417450694952458,
          -0.5285685210675388,
          -0.0026767137399809206,
          1.9106789903516364,
          0.09144807099913514,
          0.37048227877845147,
          0.5255255469117551,
          -0.046112052235331234,
          0.5741228016322346,
          -0.3350183392416648,
          -0.01053584177446893,
          1.2243348921591648,
          1.1347014970432419,
          1.2410501196862282,
          1.1737930548776045,
          -0.29071717390864743,
          0.6719312091933368,
          -0.9053256250921876,
          -1.049076828841654,
          -0.4437514539259114,
          0.08986648812992953,
          -1.3996194839466796,
          0.13938438616866575,
          0.07002685548516473,
          1.1766929198482723,
          -1.1068801930895678,
          0.11120520123672639,
          0.11871263830646572,
          0.31520961456567803,
          -1.364959342217034,
          0.31295191114494386,
          -0.2931076055289659,
          -0.7920802372093454,
          -0.8562359748667214,
          -1.915261036457496,
          -0.2540976837424014,
          0.20927313080088733,
          -1.587458749005365,
          -0.268534688439866,
          -0.8753448659066406,
          -2.3874016075208284,
          -0.21887172998987434,
          0.6408219149539618,
          -0.7020906118819551,
          -0.22168880809716254,
          -1.0902767800686781,
          -0.047915034860590164,
          -1.9830369106925236,
          -1.522014929597193,
          1.18047493189379,
          1.3663889471584625,
          0.8749361410004048,
          0.7052487188558101,
          -0.478494602530417,
          -0.9167704697012578,
          -0.8025522903740263,
          -0.7087025097372136,
          -0.6789956300998422,
          0.6179213948320954,
          1.8504273075489346,
          1.2686935720778592,
          -0.04271357799773204,
          2.0032367854334505,
          0.002508030509258604,
          -0.06410794774005682,
          -1.3387046340287614,
          0.0627905788336593,
          -0.18295775775465378,
          -0.8755277956993599,
          -0.04799607085266081,
          -0.4329557584206482,
          0.8634492894521274,
          0.0244574347152671,
          0.5049503247720499,
          0.49940560919209265,
          -0.24450793065161558,
          1.4004863663784086,
          0.193154101734859,
          1.15379719120964,
          -0.05927178414622929,
          -0.6051213870874251,
          0.4502478051240898,
          0.46900979279668725,
          -0.8576456676254238,
          -0.09727571167379878,
          0.8988025873830676,
          -0.8844881980230594,
          0.3884610383378133,
          -0.2743640674437447,
          1.4748114703920714,
          -1.6276719164950797,
          0.2736531637009606,
          0.22088154862972773,
          1.1031517804565893,
          0.05444659700250523,
          0.8847033820298492,
          0.502755273338333,
          -0.438190724678824,
          0.17984690399302547,
          0.7199451416355231,
          0.549847970936716,
          0.811118787738982,
          -0.019580059296091377,
          -0.8454065450478054,
          -0.4728827854158366,
          0.660381169394016,
          -3.181117155344225,
          1.3171922326150824,
          -1.128722670534421,
          0.03629005026156809,
          -0.1856786489745036,
          -0.766373951660448,
          0.6466120497439508,
          0.67573422064177,
          -0.9456477292581195,
          -0.43943452112119963,
          -0.3285866104767175,
          0.17882295762782113,
          -1.1442677627550593,
          1.2943839595873803,
          -0.10439182880436282,
          0.6333677474653137,
          0.85901740940628,
          -1.530916914346184,
          0.48898557514264085,
          -1.4065156913342567,
          2.397411157281734,
          0.41265191916336996,
          -0.2615012301333575,
          -1.5103375218113262,
          1.1766873450827042,
          0.9353481449325403,
          0.23551614627442335,
          -0.23106872689735863,
          -1.3121014494641692,
          0.16608318989843207,
          -1.6962287555227444,
          -0.6655902018734792,
          1.0549255856568154,
          -2.135493323079436,
          0.5084714161907268,
          -0.5007487685116823,
          -0.0013286457104497872,
          0.49533092566824055,
          0.9075890637389497,
          -0.5571243942298042,
          -0.1915589243602581,
          0.46217159559824933,
          -0.3279044791471079,
          -1.1897955288897963,
          1.0838925705399653,
          -0.5092707472439838,
          -0.5101885263286596,
          -1.1356217801741229,
          -0.638675148599373,
          -1.469286991903109,
          -1.5358959786978206,
          0.40703247452993985,
          0.9791883995406682,
          0.5125207907887629,
          -0.4029055516650945,
          -1.5940777998923248,
          -1.1207542799572134,
          0.6070961619466243,
          0.3506571090665151,
          0.07226522260801496,
          0.4764620941469748,
          0.42826186863414945,
          0.08303438228449314,
          -0.13851029911021442,
          1.0005729447227245,
          0.0854931665453448,
          -1.8556791581930228,
          0.12857525023448585,
          0.12251388052638576,
          -1.525507027372723,
          0.13342470904234413,
          -1.350343755811488,
          2.538750351316539,
          0.967881877439302,
          -0.9858109548995949,
          -0.5901512530216837,
          0.2218739314039129,
          0.3431888980008167,
          -0.6776013951988398,
          2.491004507383188,
          0.017550819470606736,
          -0.46478102609431227,
          0.5567005349502778,
          0.011904988574464117,
          0.8292325630249604,
          1.1795120656387261,
          -0.8388804754759994,
          -1.5180194698679566,
          0.20397123214642096,
          -2.172267668250465,
          -0.995658474030191,
          2.1905070221186187,
          2.411653296524923,
          -0.01074521360894739,
          -0.2234603116732051,
          0.4549302080347327,
          -1.7520008165138286,
          -0.39505197262673675,
          -0.5096756932915214,
          -0.3420187725846749,
          -0.3238822118893127,
          0.1769323756151366,
          0.7743437235178618,
          1.1387270901276418,
          -1.0771686419428468,
          0.8177086921497523,
          -0.53945587115303,
          -0.3563959981802994,
          0.8276947383336177,
          0.7466112857277099,
          -0.4846525401434216,
          0.5091760630486023,
          -0.06340077917469329,
          0.27875089633219374,
          1.2412952512935465,
          1.2518499914183079,
          -1.6741170420605114,
          1.6196305691104207,
          0.6823962374605933,
          -2.0689541318539812,
          -0.8805883203049808,
          -1.0620430872955962,
          0.7451928089362103,
          0.7850465383397934,
          0.2292870555313065,
          -0.9658498187387815,
          0.44579474912723416,
          0.17768798240601108,
          -1.367479070622146,
          0.9539878392584064,
          -0.4445244329166235,
          -0.8889604907469565,
          -0.3141114177483995,
          0.13378241341610048,
          -0.28627453353206805,
          -0.82960193523323,
          -1.5659137196793944,
          1.1803112427262226,
          -0.8609426520557489,
          1.4622874430782389,
          0.33388741984528947,
          0.8676802657438765,
          0.5710849047879282,
          0.8973703371119933,
          -0.009967304788116417,
          0.5032082493984408,
          1.51649380784782,
          -0.9969310291490866,
          0.48523273330351474,
          -0.6187716732619988,
          -0.6250319209315727,
          1.458552087600973,
          -0.1531871209463467,
          -1.807460344597225,
          0.7668742102803181,
          1.4126444185527993,
          0.7604741942727817,
          -1.290333815728436,
          -0.13123723910450583,
          1.8197792242930606,
          0.3473453015501397,
          0.5444151925916031,
          0.4690537658787239,
          -0.4903409245832045,
          0.8929670984301482,
          0.1505267964140757,
          1.2110420950299299,
          1.4468078550683474,
          0.8421741288215976,
          -2.6899485779103314,
          -0.7059734201297362,
          -0.16007920257393402,
          -0.6644316165829026,
          1.1095018342055705,
          0.41171963723235955,
          0.8389549917614313,
          1.2339247008790026,
          0.5049519569417654,
          0.2018332461256737,
          0.24300019041776597,
          -1.4342032716183513,
          0.4535790191008215,
          1.0928252298041596,
          -0.24204808877684733,
          -0.3978031908526344,
          -0.16386556724740423,
          -0.25600637582216085,
          -0.26593251283203206,
          -1.476742977830481,
          -0.5174438933844421,
          -0.7671880207688693,
          -0.7656857362015635,
          -0.3163829229081124,
          1.7083177427373257,
          1.3767767037014706,
          0.7950603990677064,
          0.3417356565525151,
          1.1967011532007725,
          0.7004955780757784,
          1.3037917817288502,
          -0.8822174152423113,
          -0.05928566899053384,
          -2.0522001452477614,
          0.5809101614375409,
          -1.309941402490977,
          0.22246074674557173,
          -1.1189474378172752,
          -0.4201947434581119,
          0.7819253629953138,
          -0.04305291006886285,
          -1.4470628410473119,
          0.1889295041587969,
          0.4185952883996418,
          0.347288645143463,
          -0.9734242666813822,
          -0.5795177696396707,
          -1.1772581965331892,
          1.0597272659433483,
          0.5567874477689707,
          -0.7844070228516932,
          1.2368692263656587,
          -0.4918603963020366,
          0.07012222429658185,
          1.053232640748755,
          -1.25940578690367,
          0.4729412203953792,
          0.5284076182377444,
          1.8988325740714422,
          0.20672588331651023,
          -0.1256700753597755,
          -0.9084943057152822,
          0.6600900298461201,
          0.24046503477476078,
          0.8480542973701375,
          -1.2754679612105773,
          -0.7490142982828559,
          -0.9464716041194772,
          0.1783648068498704,
          -0.3159460445292628,
          -0.6717874355166462,
          0.943098363933447,
          -1.5490865507946856,
          0.23224494917387614,
          1.5770207554035647,
          -0.8266021668324681,
          -1.2707660659686184,
          0.37113816745192635,
          0.48147215358057377,
          0.49686687103874194,
          0.25375412668795394,
          0.525211410426883,
          -1.0091739911183422,
          0.23559582236499282,
          1.0134441182289617,
          0.6064552214771048,
          1.4171410961085482,
          -2.3777087419611265,
          -1.148609893357655,
          1.2330240379114088,
          -0.6674733845001486,
          -0.4417367084271433,
          0.5788792302651797,
          1.5946656267610395,
          0.611893842069178,
          -0.7848770072880477,
          -1.7824235732597005,
          -0.4677141736095383,
          -0.7344031588823161,
          0.9206972931179125,
          -0.3137192025819928,
          2.068305011064426,
          -0.46772454382169004,
          -0.3691624615105238,
          0.31262809838567823,
          -0.20764664108082798,
          -0.2675326039987068,
          -1.154766287960391,
          -0.9046333344661042,
          0.7323742965807029,
          0.595715587900736,
          0.004662883352849334,
          0.8874141490496767,
          -0.9793068847543424,
          -0.3574544928240211,
          -0.12500008770263143,
          -0.3642672128495887,
          -0.14998281893651322,
          -0.42915678126511614,
          1.4812346095644595,
          0.9781285127806754,
          -0.5010059846266396,
          0.8859617497158132,
          0.07988700781670417,
          0.476942096224515,
          0.6178111748290687,
          -0.34945313014793333,
          0.0027808695505986245,
          -0.5332283464721808,
          -0.26535784306467436,
          1.5731918988725604,
          -2.3048578367524097,
          -0.14640945479358033,
          -0.04783845969820596,
          -0.34574817049718654,
          1.7579081904467033,
          0.16927728975833178,
          -0.9176738505510336,
          -0.14405204842574817,
          -0.6712519785220258,
          1.2806807139434218,
          0.8317515125263841,
          -0.18197575708494396,
          -0.36398421286318233,
          0.3490068228911399,
          -0.4496303468986304,
          0.39432717317387606,
          0.5052170968566143,
          1.3256253247087013,
          -0.34188671432968326,
          1.5568065024592208,
          -0.4192407199389261,
          -0.45224916010481714,
          -2.179322171877543,
          0.643064940778886,
          -0.4908335966831057,
          0.4191033386344107,
          0.8309238651796023,
          -1.266700636605181,
          -0.0837238950883365,
          -0.1983613050716638,
          -1.0455785904315003,
          -0.046312999933529705,
          -0.1311515754530629,
          1.0071743575503,
          -0.902090015287626,
          0.089845620934108,
          -0.75046527181855,
          1.838145806501676,
          -0.43440416005659116,
          -2.336327489554408,
          0.38505726713285376,
          0.1499544087245373,
          -0.8203652377227564,
          -0.7438366975753709,
          1.41811260016791,
          0.8259159508911398,
          0.11614262676563275,
          1.9001349957962412,
          2.460874077406332,
          0.8180782589217246,
          -0.6954147752250383,
          0.10622750208737287,
          1.0293155694528058,
          -0.4061344558205284,
          -1.3817458430560743,
          0.8722893014670782,
          -0.9798507379662371,
          -0.007663602819325523,
          -1.2797594277053888,
          0.7207580282334359,
          -0.9491899877810648,
          0.7707675250363147,
          -0.8950753858607364,
          0.05233387660181787,
          -1.2915575237321661,
          -1.8500127609783705,
          0.07865714786843153,
          -0.7744688407551825,
          -1.1929416086488156,
          -1.0602937765893021,
          0.3504757254898771,
          -0.5380851164687479,
          0.4178382442125448,
          -1.3701160339938754,
          -0.2575044936525273,
          -0.583650203053963,
          -1.8653673134138644,
          -1.3105088731842922,
          0.8847751739567647,
          0.11848918594563933,
          -1.1605939056001713,
          0.18473026115389068,
          -1.3427311909240125,
          -0.04971520675556281,
          0.922461348420253,
          -0.30621330698225147,
          0.6865561254391779,
          -0.2969623059816248,
          -0.24621663179805736,
          -1.601350193238505,
          1.4826483547533058,
          0.3324983481026835,
          1.5231186056606292,
          -0.27506170989066087,
          0.39717364001183875,
          -0.23500652425510854,
          0.12149319002690251,
          0.3569647952374178,
          -0.8352578831403183,
          0.7163264887021474,
          0.5844784696775324,
          -1.0668734410593863,
          -0.4336762546126141,
          -0.7721945978368449,
          -0.420006024898892,
          -0.10606769572345917,
          0.3428600777308552,
          -0.6792615768295913,
          1.5377597514136145,
          0.17095666191771855,
          0.22305506344088757,
          0.6483973447016067,
          0.681912017633688,
          0.25900692780843143,
          0.6601463861661275,
          0.8268458051085289,
          1.6745558970371133,
          -1.2669712583004118,
          -0.49112466707724345,
          -0.3271129427039028,
          1.935901517157728,
          -1.5230704338317833,
          0.48978001303488816,
          -0.8735556135798864,
          -0.2714243467127829,
          -0.6413474544239856,
          2.3557849136465756,
          1.1867734419831295,
          2.2454076021815097,
          -0.7551554714507325,
          -0.36513211900443143,
          -0.5663509603453661,
          1.0163636294672098,
          1.9549480327826685,
          0.37181882195553073,
          -0.4552262157804199,
          -0.08235838490971062,
          0.134233723976117,
          -0.25739881612672383,
          -0.5524984597152525,
          1.418747133327911,
          -0.5008624431982163,
          -0.07433504630568137,
          -0.6968847510730144,
          -0.20341508858761895,
          -0.6015344205030475,
          0.8324824536192925,
          2.174790331503243,
          -0.9903475393982898,
          -0.3371220259088288,
          0.2800163473910767,
          -2.1806426547156716,
          -2.4069466146567646,
          -1.2064575620364706,
          1.2640293979252857,
          -0.297116185442686,
          0.209151538416134,
          1.0700015064905388,
          0.7473559697861043,
          -1.4306137643859347,
          -0.2976873708644964,
          0.521787486890953,
          2.4043051876955293,
          -0.5787324089979603,
          0.10508992042481603,
          -0.12102525735936716,
          1.458784410884572,
          1.3505164404527787,
          -0.8281158538915991,
          -0.6994228499092112,
          0.12686591009095574,
          -0.3571177271411237,
          -0.2224062303445652,
          -1.4410379380424085,
          -0.6583411274455275,
          0.3233039177589334,
          -0.46134697912087186,
          -0.0942206793761636,
          0.17094651670939495,
          -1.956915895236624,
          0.8085776720718165,
          0.26843541363170553,
          -0.44859933946359715,
          -1.6738927206041474,
          -0.4662472822335194,
          1.7918870842115706,
          0.620018767565655,
          1.0018019340754631,
          0.6481181708093401,
          -0.40618590517772396,
          -0.05659254739350005,
          -0.4944467997449278,
          -0.2629411451827251,
          1.0306247595121691,
          -0.9444622004648138,
          0.7313168109694581,
          -1.6267483369288365,
          0.03657127153210362,
          0.5481208036000169,
          0.10581338018182726,
          0.27341562264332764,
          0.6447380291167961,
          -0.32522973386330156,
          -0.0996454467490583,
          -1.2130108949955898,
          1.391853852073879,
          -1.5261264518848618,
          1.046896305705886,
          0.46944795171137554,
          1.7109755832540505,
          -0.24709574846722782,
          -0.7883633112997298,
          0.8789762736667602,
          -0.22801706973933672,
          -0.1367029601748107,
          -0.28353383112700487,
          -0.2609768065511504,
          -0.8482480978399516,
          -1.689686227608909,
          -0.23071111096184588,
          -1.2217913544347374,
          0.25258559567126027,
          0.739173364924278,
          3.315377065406863,
          1.0030391440039048,
          -0.14000352735570828,
          0.4282841413201445,
          -0.06909229003067088,
          -0.3634136077742769,
          0.3367305782762829,
          1.4266706325911365,
          -0.36030178710374666,
          -0.4533776830067604,
          -1.171237006207063,
          -1.4209984241042117,
          1.4851628168486908,
          0.08987757712723525,
          0.011093888838751257,
          1.318035410566595,
          0.6514380572031843,
          1.4041096637003114,
          -0.2099715156822032,
          -0.262345267364024,
          0.4126242727166482,
          -0.06834160025028017,
          -0.40176456366210644,
          1.5445016956960587,
          -1.9657004497012192,
          0.8260631127083433,
          1.0108947447363072,
          -0.435566343552323,
          -0.8730760773508645,
          -2.66830164299379,
          0.007123468400938624,
          -1.1044604793845632,
          1.1901094621100614,
          -0.7817280851375413,
          -0.033140547233792485,
          -1.535423730050855,
          -0.6430690334845566,
          -0.3516278743861288,
          0.5729375838254797,
          -0.09103482781682026,
          0.08606881571341905,
          0.9096411491029355,
          0.813552311148513,
          -0.9314115815408698,
          0.4927973541209672,
          -0.8487124426722064,
          0.20836711435368788,
          -2.1484952501914014,
          -0.33498724176708516,
          -0.05292133817240298,
          1.1779285145695946,
          0.8694782017222651,
          0.9464890887196188,
          -0.06163740002129521,
          -0.02016684438835739,
          -2.543677851559116,
          1.1769214228897455,
          -0.618478373183545,
          -0.710902600342249,
          0.6445390684637547,
          0.3065214518086522,
          1.2447607786922188,
          -0.8273353339791908,
          0.027151991858058472,
          -0.46801237651169225,
          -0.9423769123235863,
          -0.8831316441244681,
          -0.2759247699702295,
          0.5326022053371753,
          -0.19812483592328098,
          -0.16558488092044948,
          2.164476504935944,
          1.2018058498305508,
          0.5615677609917018,
          2.4852244395562564,
          0.5602363548214261,
          0.32616548874961404,
          -0.022871324653938256,
          -0.26543147615979656,
          0.3099357321468193,
          1.1625459018509636,
          -0.07232126110729815,
          -1.1389077358215574,
          0.23790329051679432,
          0.5502001699448583,
          -1.594626482654809,
          1.1877708318233393,
          -0.18618093736741173,
          1.6922797792596895,
          -0.07658695156080865,
          -0.7392595041696485,
          0.31184811091088327,
          -0.15355467618516094,
          -1.4087087756841012,
          0.9915483261942514,
          0.9759246178044358,
          0.1876262588830207,
          -0.043263317221119146,
          -1.8768190954322723,
          1.3274512074993943,
          1.0347496458565613,
          -0.23783417571988785,
          0.27041538061837034,
          -1.0466904140732822,
          1.7132224810975891,
          1.784347300081474,
          0.7624337576960876,
          0.7665176028374279,
          0.0016359807967671425,
          0.4381428933290176,
          0.7599345789639568,
          -2.412836874052017,
          1.0003174212930606,
          0.7896621018343658,
          0.8107648507393268,
          -0.8065447863906771,
          0.14751131653593064,
          -1.7015441936919533,
          0.4235081700415928,
          0.9514054644161892,
          1.3959302489201628,
          0.7126055887567544,
          1.5302215314366054,
          0.9941256456327848,
          -0.15287773099626603,
          0.6529728777962728,
          -1.3238230285973525,
          1.4658198729742011,
          -0.15315662425979482,
          0.9623447903287761,
          1.9166480424671808,
          -0.7696240245995415,
          -0.24842359977880998,
          0.9053016651515072,
          -0.8578261603494379,
          -0.023187647545799658,
          -0.20704117537471295,
          0.5539505069672974,
          -1.8836633596752617,
          1.8247557361055546,
          0.28832820106390006,
          0.5947935286368748,
          0.7741164710052243,
          1.336698543974161,
          0.8843375882516857,
          0.4901020599286513,
          0.7855603594739724,
          1.1593901871472512,
          -0.6336904668205948,
          -0.743125898493843,
          1.778836311197494,
          0.5228342738218322,
          0.4290330498442462,
          -0.0037307888754621703,
          -0.8441128076926853,
          0.04761017356123618,
          0.2146779438432909,
          -0.1437915098428678,
          0.47578706680034344,
          0.7036733293620866,
          0.6230178062378894,
          0.43206984889258365,
          -2.1530182586794115,
          -1.5770020154380502,
          -1.5810062849255733,
          0.03648298163399456,
          0.4683278867344724,
          -0.4885513428006409,
          -0.4705935050764524,
          0.66038227701053,
          -0.07307393374235895,
          -1.1846335972537596,
          -0.14484359582393794,
          -0.34314592075773187,
          2.2540894457672183,
          -0.5145827614076959,
          0.05142332426461935,
          -0.9406077154337461,
          -2.1171064400553714,
          0.3140298589154364,
          0.5817852622491264,
          -1.7727677490033424,
          -1.1747534963145516,
          0.38883586774588064,
          1.172640127294543,
          -1.2790054437736282,
          0.08280116129313601,
          0.06315329182758325,
          0.20237513689585,
          1.7033852547209896,
          1.0927448070006136,
          -0.8950228099550624,
          -0.3719482102621345,
          -1.1008718855223942,
          -0.10907433859693037,
          -0.6887262990842196,
          0.4767021126049197,
          0.6209613307952098,
          -0.4776890221645745,
          0.6510835272271686,
          -0.11436122732726775,
          0.41155450986374165,
          -0.2539307698863221,
          0.8128156188833766,
          0.5636043649430834,
          -0.05453537797233661,
          -0.43996926423342,
          0.3578148273455915,
          1.5785596741490173,
          1.2750878597903108,
          -1.149329020319264,
          2.0294721195713255,
          0.35216772188016987,
          -2.709588102332145,
          -1.5262213260889088,
          0.8287668424587589,
          -1.0286947267550248,
          -0.7120483292735303,
          1.0962100412175164,
          -0.0783047775260199,
          0.2083490127805932,
          1.2452686275808984,
          1.8240942497820256,
          -0.7164930888493761,
          -0.4467759669645113,
          0.02931698766735834,
          1.304643093969973,
          -1.0337615178111614,
          1.3346359730765576,
          -0.36190762161188667,
          -1.0897794843393604,
          1.2322598083417167,
          1.1128082526179548,
          -2.6178840052826384,
          0.22609144958070188,
          0.2405166295780727,
          0.8427231911226972,
          -0.13455493728019088,
          0.7501469264032803,
          1.1769962786383423,
          -0.8121683352410609,
          0.47658614904867436,
          0.08691107740641481,
          -0.7949515767420531,
          -0.1354209054383544,
          0.6804834608530618,
          -0.5406574116193832,
          -0.44596619418192246,
          -1.081467693639691,
          0.11049337732592174,
          0.3656521974425935,
          1.1255324013431118,
          0.1173659041936767,
          0.1913831254226761,
          -0.7915820874078393,
          0.49708969259465446,
          -1.2308034907493417,
          0.17628061293613656,
          1.4474416689199245,
          0.15823245583564544,
          -2.3303970868908506,
          1.390902299543273,
          0.008448555964305427,
          0.39566613837230125,
          0.21314386638445545,
          0.4236461761716054,
          0.16831547301561342,
          0.2825358431001652,
          -0.005640253848193688,
          0.6693573731971822,
          -0.26173562471808964,
          0.524607844108911,
          -0.5941207337990041,
          -0.41429036716181894,
          -0.8123296453415619,
          0.1680376904368316,
          0.08744944430199805,
          -1.2062401283462938,
          2.0111688862293744,
          0.3220455066374362,
          0.004124502256940283,
          -0.1764643160958087,
          -2.1614365353657825,
          -0.6137892132073585,
          -1.7985009676977126,
          1.6578805586897973,
          1.6242102908905582,
          0.18519604627732494,
          -0.1632852556440257,
          0.2536580101312555,
          -1.0607879206647137,
          0.7142146623772034,
          0.6901281647356677,
          -0.4807065374815356,
          0.14648803664675797,
          0.7846567929190185,
          0.890552814479859,
          1.3143474842802652,
          -0.3014933917499219,
          1.5482374873546398,
          2.962142606804796,
          1.239509169699983,
          0.7123242433314365,
          -1.2212059891780171,
          -3.094718008452739,
          -2.0364778787755826,
          -1.8330949176767641,
          -0.7007243638315154,
          -0.002771816793759591,
          -0.2564190222135244,
          0.08837226754710001,
          0.656592823349015,
          -1.2136183244191312,
          1.2146920240238577,
          1.1910126257072584,
          1.3158337988581839,
          -1.186224288379437,
          -0.447475303954589,
          0.1401054303986351,
          1.0108319483078387,
          -0.05051613793781494,
          0.8533497440682498,
          0.2795387622712587,
          0.6713342142178235,
          -0.28621881537705596,
          -1.6794456759593952,
          -0.6874760327890403,
          0.1174509793250472,
          -2.1674939300337726,
          -1.3929796565263506,
          -1.3227991833620452,
          -0.9629599815766261,
          -1.2683570924572882,
          0.3622803727917736,
          0.6578753804580436,
          -0.8334389837289764,
          -0.7008175310484986,
          0.3951321886178257,
          0.9398514935650701,
          0.9306482570533763,
          -0.6771998333649208,
          1.2114619862791407,
          0.08455659303555019,
          0.524748076686539,
          1.160395737834878,
          -0.7650783264124387,
          -0.8065811100605695,
          -0.7619174572384396,
          0.2346525424030625,
          -0.24135591945209184,
          0.07561102911847649,
          0.1825369212798628,
          -0.6953919885275895,
          -0.8356104782987573,
          0.2480577250523845,
          -0.3698069088519286,
          0.6352142004082053,
          0.06750677000247875,
          0.5219105752048742,
          -0.5108139181862682,
          -2.2735933144786116,
          0.648123081929836,
          0.45121926989653466,
          0.2375733295465724,
          0.4670069448850657,
          -0.16152792706531538,
          -1.1437357154434946,
          -0.6230207518896618,
          -0.08180723747408818,
          -0.5280464919858163,
          -1.1726342589992476,
          -0.6736843373269287,
          0.9489076737101558,
          -0.3027209782577218,
          0.053628561264530375,
          1.1833105180295282,
          -1.1788544375623888,
          -1.9871598167851876,
          1.4089203772492997,
          0.29992238803839083,
          0.7351777548429257,
          1.4807245303900582,
          0.3244584730210523,
          0.8644609131208519,
          0.8206108896054465,
          -1.435129980608029,
          -2.064673607512671,
          -0.7042286931303712,
          0.6948964549858634,
          -2.3554096739951773,
          -0.40279383920004763,
          -1.9879050401775467,
          -0.1215584210831363,
          1.7976506751424783,
          0.5878033515831466,
          -0.37497008177045704,
          0.6199628282933672,
          0.3577681929433138,
          0.3957756565006065,
          -1.8079814031393362,
          -0.12344193399178577,
          1.149130926298123,
          -0.039302322704089364,
          -1.9277756100574488,
          -0.24986818316764942,
          -0.10750970249369403,
          -0.777210597136745,
          0.9657085247842659,
          1.69901480054402,
          1.0548650432728828,
          0.36199746263153565,
          -0.5773525711109103,
          0.3529387032914406,
          0.14805706438273375,
          -0.3996654856324254,
          0.06525403323617064,
          -4.030091685451856,
          -0.22561305099454967,
          0.9593212194381728,
          0.5527241647424899,
          0.6058757823100493,
          0.9222668335454719,
          0.32780137933060366,
          -1.7333021013186989,
          -0.2915616052125356,
          1.4435547827034978,
          1.4607956722713462,
          -1.2336495765899747,
          -0.10770820804120304,
          1.0266267434235525,
          -0.866159927787575,
          -1.8550551998165417,
          0.31467687984228065,
          -0.9590790678401483,
          0.30723813803895067,
          -1.1092416967338607,
          -1.5866644715336178,
          -0.1790740073829471,
          1.0397162630580845,
          -0.2847462084071177,
          -0.27733954693725693,
          -1.2754034890728674,
          -0.3861785605146766,
          -1.0022874468757617,
          0.3603734819009345,
          -1.1688188361972645,
          -1.161717017856524,
          2.0557556163347224,
          -0.1314575139917411,
          -0.45561564483902894,
          0.5641962850581271,
          -2.250976306046296,
          -0.8441546444516241,
          -1.8236564070323518,
          -0.4502597774835299,
          0.5254329147450848,
          -0.8033264154644274,
          0.9386990784090434,
          -0.19579434145154856,
          -0.09442863183932791,
          0.9880631869884342,
          0.7791277129800576,
          0.3288723071235423,
          0.36676940295852756,
          1.948914799584387,
          -0.7001742645961321,
          1.631411905137153,
          -1.2866269260774899,
          0.6375619895855089,
          -0.006123005071388717,
          1.108713216226815,
          -0.0015403533434960254,
          -0.012470998664360786,
          1.097566222096399,
          1.7351034319804646,
          -0.21921972256956873,
          -1.0055286886101091,
          0.3719192993993047,
          -1.173195893171375,
          1.2558824487933749,
          -0.3801687760740166,
          -0.04082276489583599,
          -1.6493886420774115,
          0.19148936673809788,
          -0.4081885225266425,
          0.9521416228296036,
          -0.7220931890824624,
          -0.2878154500259816,
          -1.009570634344985,
          0.8972622649630684,
          -2.329167919722266,
          2.327775741164929,
          -0.13685050821049483,
          -0.6999998628268641,
          1.4961527017425051,
          0.30217715696477826,
          -1.1181274559544079,
          0.3904830970477959,
          0.6973383152254733,
          0.13761560625296,
          1.0423311602962482,
          -0.09511723461403589,
          1.7684550083039041,
          1.21807060666138,
          0.50244704611302,
          0.37698057451169825,
          -0.18897395630036723,
          0.7326044059441533,
          -1.0866948773801717,
          0.5772582621325913,
          1.74004467932448,
          -1.1377870514314166,
          -1.267577825265183,
          0.3529588660922828,
          1.9706931829799588,
          -1.088150385562658,
          -0.5681862388261488,
          -1.4606993995452544,
          0.46356187350111444,
          0.4030527531110442,
          -1.4410436980747674,
          -0.4830478787421891,
          -1.2356043097890723,
          -0.2696094931690475,
          1.3905905789049609,
          -0.06934521561783308,
          0.7056933897217207,
          1.083311918230673,
          -1.7703004556601962,
          0.4354470454442869,
          1.2194875462495334,
          -0.6950356755544886,
          0.2807570262872282,
          1.3237235088142751,
          -0.48872133287674946,
          -0.3217502856618241,
          -0.4178623868291897,
          -1.7198477556506573,
          -0.17037205983291617,
          2.7437692043329456,
          -2.065398321589595,
          1.2392200101181992,
          -0.38490371966294934,
          -0.6276210551391361,
          0.8246413093787155,
          0.1372933519026798,
          1.4353820244124142,
          -1.0561868245576223,
          0.8373513589473786,
          0.3369070954656997,
          -1.5721575920411628,
          1.2603013497869575,
          -0.29117041898592133,
          -0.6871809115012334,
          -1.6974832755228875,
          3.0037610219235815,
          0.23922444360316425,
          1.5972188310687516,
          -0.01392551309451521,
          -0.41720527522965556,
          1.8840298533749087,
          -0.505727091233614,
          0.3424762990866807,
          -0.5377584184556065,
          -0.6344592476438579,
          -0.9109688649716047,
          1.0781824263603905,
          -0.9416133887073628,
          0.2876232784933576,
          -1.3991137427318558,
          0.581625114588163,
          1.0009383561147602,
          1.0721759711182137,
          -1.1680868431390736,
          0.5480977797886908,
          -0.15400764566072742,
          0.3994108822238348,
          -0.2219611659688204,
          1.2317713105247055,
          0.12658768120940966,
          0.3312861194261358,
          -0.5130126653470403,
          0.5255105793886152,
          1.1692273688158328,
          0.477317806224753,
          0.9578182643880588,
          0.23332101530384544,
          -1.137049370523306,
          1.0637153800178047,
          -1.3879037547090909,
          -1.0150115756978255,
          1.3105983440393576,
          -1.458287986182619,
          1.0350631299096977,
          1.951337899497915,
          0.7843480569788321,
          -1.2393060537163822,
          1.2942848973804864,
          -3.019667395361273,
          -0.5013751955963389,
          -0.30410564952136176,
          0.8094725752900339,
          0.3648471169398179,
          -0.16375755262344469,
          1.4033068536952167,
          -1.4394436842197906,
          -0.3904792064808112,
          -0.3592901543661939,
          1.5498464221642707,
          -0.5668242138831009,
          -1.3910264091661821,
          -1.235616246205604,
          -0.13242867754551466,
          0.037762572931064234,
          1.7373185387242907,
          0.0019373701609705124,
          0.37430729324695144,
          0.23893381486570334,
          1.755876044214137,
          2.256773354242195,
          0.6958967812758201,
          0.04929053693064465,
          1.2789601720949493,
          -0.15137735448882608,
          -0.5945023056652787,
          1.9182428473043889,
          0.8225705779122023,
          -0.34608717516174237,
          -0.15246871172961374,
          2.1612141927108564,
          -0.9255622437709787,
          -1.054978269906379,
          -0.4410810978852141,
          0.2090599773478146,
          0.6617967551091952,
          -1.2091584456410311,
          1.492337174340142,
          0.1738736911696193,
          -0.7670504554426436,
          0.30706276713967157,
          1.6808078573065037,
          0.5767439156584235,
          -0.7649603446717547,
          0.2775088567287251,
          0.36346575593673336,
          -0.38492242254545717,
          -1.8008823573620671,
          0.25144996371154676,
          -0.6443617987455111,
          -0.18985999351793392,
          1.1132011560545068,
          -0.9893950919766265,
          0.7024221586850272,
          0.7750550892773296,
          0.7645762598935462,
          1.2964784344272342,
          1.9054017961810858,
          -2.1810323398094518,
          1.213218844146417,
          0.4170981751874793,
          -0.6015967977969716,
          -1.700783491303906,
          0.30717370811686756,
          1.1241156556654464,
          -0.7748654777756332,
          -1.3044694460533737,
          -0.6078484797236773,
          0.38389745770442557,
          0.7293061824193935,
          -0.17195308407735518,
          0.007855264993050282,
          -0.8345709628456625,
          -1.0972751285219942,
          0.8525302766619045,
          -2.052579353669666,
          -1.5333979883492281,
          -0.3748127866573614,
          0.587219023283174,
          -1.3153057785898934,
          -0.22211893708035899,
          -1.7717893565890397,
          -0.33870056693890715,
          1.5633649761248811,
          -0.5544932362517498,
          -1.7483491804053681,
          -1.4333522058913208,
          0.9359576544233259,
          -0.8816018512562452,
          0.3211361648159114,
          -1.1413013484030248,
          1.0431989976140308,
          0.30664815365271497,
          0.18685568611544526,
          -3.1759110332874174,
          -0.8270775802270783,
          -0.6202284197961224,
          -0.8043169104231477,
          -0.3439039261955349,
          0.6917686481337102,
          1.6435970701960105,
          -1.0103694394193503,
          0.25246935495876255,
          0.8473570400878652,
          -0.43539293847291577,
          -0.9653567371323146,
          -1.0208193706579451,
          0.6767515392829869,
          2.5292944092308725,
          -0.5570403497655032,
          1.025257415153742,
          -1.3349034291199995,
          0.8120724525398526,
          -0.5217661590749318,
          -2.2716481105240285,
          2.1149166099269765,
          0.19289976347554566,
          -2.506138404545555,
          0.829164666887862,
          1.5976054079534199,
          -0.30053214945500967,
          0.024154742901327176,
          -0.21510406405367277,
          -1.9190396039354871,
          1.3884379049674898,
          -0.8398848273730226,
          -0.09913761131710358,
          0.444946586146772,
          0.617836093039717,
          0.4903448979720248,
          -0.2529058649436313,
          0.3636749283209287,
          -0.8380949516723373,
          0.37691687961212467,
          -0.4662751685589811,
          -1.6981775385602562,
          -0.19581438727796205,
          -1.5398477257403904,
          -1.255829824373933,
          0.4499817612935045,
          -0.4850815002021958,
          -0.15874099651215298,
          -0.4327940717835583,
          -1.3525848490482093,
          0.21845977312821296,
          -0.3407456843327973,
          0.7855112721979028,
          -0.100916929897336,
          -0.6323376599391982,
          0.047044209293635945,
          0.6604787320264348,
          2.4269783397752014,
          1.0253535818477937,
          1.9908660307849013,
          -0.39462064974047795,
          -0.6372682240363257,
          0.337367357692122,
          -0.9021627482292044,
          -1.9002687263354143,
          0.7368909868111371,
          1.2232342054083,
          -0.6687297279546959,
          1.3934727234366304,
          1.5536704895954787,
          -0.5522066553944806,
          0.15485666639408602,
          -1.0522536236763222,
          -0.6762516195301282,
          2.1033674428954843,
          -0.6122604571699476,
          -0.8116058474121209,
          -0.1171377002383838,
          -0.6788375784073415,
          -1.9757640129123106,
          0.9496668188960629,
          -0.5961862431501916,
          1.26929039152586,
          -2.5413966884237507,
          -1.0822400202706346,
          -0.5033401898291536,
          -0.6282944146692301,
          0.7284547160439873,
          -0.2201880015597301,
          2.557458102860888,
          -0.5135494094934274,
          -1.6482565540590264,
          -0.004371778459741634,
          -0.31081358757200234,
          -0.31658149997856033,
          1.0656339001868333,
          0.1809589890821638,
          0.8873824808862577,
          1.5201407173308132,
          -0.9866128556724167,
          -0.822429138569097,
          0.24828321398729333,
          1.1239793463841619,
          0.8317678632338505,
          0.2724080659662874,
          -0.6758237480055779,
          1.1913993261760236,
          0.7247886364604124,
          0.8193912937805556,
          1.077021236402731,
          0.3111636268397354,
          -1.7016193840314915,
          0.04192141357923323,
          -0.7982341453632119,
          1.3923282307158036,
          0.4668147125935289,
          -1.007294287598914,
          -1.5683386072661858,
          -0.564087804828131,
          -1.6490078335552607,
          0.06329129317401092,
          -0.36107362775334356,
          -0.8414543816729004,
          -0.29323105169696406,
          -1.6831247950113444,
          2.016217302114947,
          -0.24102515605560085,
          0.4164085849498846,
          0.8034262909611396,
          0.04645818681757507,
          -0.5036977727801663,
          0.5359020695238184,
          -0.9870635667802475,
          -0.7492945482493304,
          2.2462593023941158,
          -0.20675207684808922,
          -0.46376352040332536,
          0.10278197556783117,
          2.232204120792391,
          1.790698446059111,
          0.49921214340625203,
          -0.09926384771553075,
          0.6283003924511267,
          0.9510446854689908,
          0.051112659942980955,
          -0.6639907540487889,
          0.43307060410270953,
          -0.6729180240474599,
          0.12935628654966044,
          0.4354068160810038,
          -0.22430386639507016,
          -0.9671602717706163,
          0.6323994187957122,
          1.0814251689347192,
          -0.5251563910361391,
          -0.5133481444572934,
          -1.8868180271192023,
          1.542080007721998,
          0.1882854486961512,
          0.8388048804792725,
          0.6998114557251519,
          -0.8559393174386298,
          0.3890676325796,
          -0.16084892487600747,
          1.4269660501061434,
          0.22329801056935902,
          -0.27250060154086975,
          1.2031276825963142,
          0.5142850516816106,
          1.0077930396252632,
          0.04198517569624916,
          0.16832526966068995,
          0.16573690453555476,
          -1.664437948262458,
          -0.8128636408702475,
          0.3028776959903532,
          0.5364008445672335,
          1.3337120564459841,
          -1.3868322254782282,
          -0.39168319641737703,
          -0.41032661743474474,
          0.6784636270762893,
          0.5859641329734283,
          -1.8806434906659186,
          -1.3426571006151027,
          -0.09832185937901106,
          0.9349034694109123,
          0.4231395978875812,
          1.1044402431951665,
          0.3513290533980967,
          0.9845821699715643,
          1.9928775834592762,
          -1.1915551015699553,
          -0.3559723959900568,
          -0.4122299244000313,
          1.019272413077924,
          -0.5926550683031214,
          0.48314349299422316,
          1.4952216840989492,
          1.6016878254505935,
          0.7892664772762389,
          -0.6788855937432586,
          -0.29922046367345406,
          -0.7427937456774709,
          0.08939947257263763,
          -0.9790232970808518,
          -0.05076353674374683,
          -1.5537362490025226,
          0.831181950225553,
          -0.9214774261105941,
          -0.4042322773726756,
          1.7762633054886616,
          0.608326122665062,
          0.16173443011007316,
          -0.4587028198579042,
          -0.6528009493013084,
          0.897298104236659,
          0.294244238306965,
          -1.2528813751201777,
          0.24081208676404794,
          1.5718953600607524,
          0.35327975608884155,
          0.3517151739728553,
          -1.7726775389373592,
          0.2635546273423207,
          1.6343017359340055,
          -0.29091758353464925,
          -0.5401069822434622,
          0.8553398096371452,
          -0.1684767309402438,
          0.671333263919196,
          -0.7687958682763562,
          1.0347643788875194,
          1.7027545842399503,
          -0.9758406557192784,
          0.4333660815371983,
          1.5070110167023256,
          -0.06125247750155456,
          0.6884185625429701,
          -0.22946077326896608,
          1.1877473074361027,
          0.15081976722667828,
          -1.0485405702686135,
          0.6134398425587742,
          1.468057380867421,
          -0.05750103029944238,
          -1.071753219920407,
          -0.7462649862506561,
          0.19963672121298504,
          -0.5953897976852514,
          1.2719976040159224,
          -0.6072936671594799,
          0.33222516245403133,
          1.2555251383744348,
          0.32387731866378894,
          0.5246894751848901,
          -0.08506126710021898,
          -1.3269513069674101,
          -0.9029610039452379,
          -0.2830620900628134,
          0.730392752777114,
          0.8459793035138236,
          0.15075180729093512,
          0.8050039436446736,
          0.9530375182953472,
          -0.13379394622477273,
          1.7418578965666562,
          -0.4464569091743869,
          0.5870633570936389,
          -0.5587926634266372,
          1.1608029712330457,
          0.049978674915399375,
          -0.7049796836194474,
          -0.6576093926610845,
          -0.33118869087949504,
          0.5523407503552324,
          -0.25415975468134794,
          0.7150019551277805,
          -0.02788441002045287,
          1.2125615947718715,
          0.6106813014503409,
          -0.36619413118484645,
          0.05984989501285089,
          -0.2769659322060796,
          0.73298327171896,
          1.1378021403890841,
          0.14347286662870015,
          0.9039820985250057,
          0.5629866166766752,
          -2.0864296603474366,
          1.27296123277259,
          -0.5582615823845059,
          1.6780853810264067,
          0.7459791306932959,
          -1.4371614923904057,
          0.15438518995457765,
          -0.9405155753301976,
          -0.23520480707733557,
          -0.6224333025961393,
          -1.9887301717407406,
          0.39963894961165675,
          0.16768177778391138,
          1.1326511954098637,
          -0.26073319114541604,
          -0.4898479846286703,
          0.2155123918174347,
          -0.18419988085388772,
          1.3491273810597497,
          -1.1571788523032962,
          0.06403594175889148,
          -0.5101293475328101,
          -0.3117239347166499,
          -2.0092319857538863,
          0.8627324938218277,
          -1.0908857905108973,
          1.7107233276410734,
          -0.8282258494253496,
          1.0405222204099074,
          -0.5945330283101304,
          0.9628194344777626,
          0.7338074604078928,
          1.618571107052829,
          -0.6484664007001888,
          -0.14011890359494214,
          1.0317541370394951,
          -2.5747606715632276,
          0.627693055261121,
          0.13413598344369898,
          -1.8541425703420245,
          -0.6073532736672207,
          0.7158709901385527,
          -0.5280350328008155,
          0.6508033142635112,
          -1.3952402922528768,
          0.5263922576156285,
          -0.11732440094440547,
          -0.668468705316738,
          -0.5483345120367428,
          1.6496982537846636,
          0.22640117754039557,
          -2.7721382182415684,
          0.8932810751483998,
          1.903465824392436,
          0.6673787430187591,
          -0.5356077141605671,
          0.18247592141550406,
          0.060802064582874606,
          0.528027285287608,
          -1.5199845788126534,
          -0.4623809654828843,
          -0.148347360506864,
          -0.4596738365439352,
          -0.7287320563264454,
          1.1163140448218205,
          1.0546711410716951,
          0.5026569984123844,
          -0.26489671275668136,
          1.3472610250849466,
          -0.20607400080511556,
          0.6624519469713349,
          0.5024267984792459,
          1.9967827482217602,
          -0.17812764278719442,
          1.2453840475319053,
          -1.5942738964050887,
          0.8345680171368679,
          -1.125296421948485,
          1.421490928694418,
          -1.2694237604687577,
          0.9403346047815888,
          0.150470773065577,
          -0.9982692782790139,
          0.7152519607646303,
          1.0198231318761106,
          -0.28262965005551255,
          0.015984586086871738,
          -2.961576671483226,
          0.23430305949120536,
          -1.8818995807945418,
          -0.8754973253749884,
          0.538077725598951,
          0.2130170749346563,
          1.036162906274845,
          2.044670535030321,
          -0.5848531945873905,
          -0.5862631324457506,
          0.5062932623449353,
          1.7090932643113332,
          -0.759908808688766,
          -0.8480126973918589,
          0.23013423695534146,
          0.9142114762242967,
          -1.7866513570517344,
          0.7005581760460832,
          -0.2646798489670446,
          -2.367818403873054,
          1.739327848206204,
          1.5830575576027786,
          0.9031451386532695,
          -1.147542203539266,
          -0.9729371962008339,
          0.6366958129202492,
          0.4564354162349704,
          0.5202538279608082,
          -0.6324757376739074,
          2.9047583828580366,
          1.2424720000338128,
          0.4515390122086871,
          2.896259184745755,
          -0.4983706982292437,
          -0.7533571813305245,
          0.9926749976185812,
          -0.21072157297593502,
          0.5331505749584889,
          0.34708633792661897,
          1.3201257359093137,
          0.8014835790306857,
          1.0504554010841771,
          1.3142034566723517,
          -0.16474679100511652,
          -0.44259683196114197,
          -0.26783820433367844,
          0.47691444355424073,
          0.23773219255011233,
          -1.3598718713831324,
          0.3866614067428925,
          1.1370714959259443,
          0.8356824189614008,
          -2.933680027789114,
          -0.6162637586741588,
          -1.609544038369708,
          -0.5497368739738654,
          -0.6280787032343209,
          0.43655761059232673,
          0.30211725697243674,
          0.37498488458645457,
          0.39746485617422883,
          1.0315578928944715,
          0.7280998964855024,
          -0.8689360124050253,
          -0.7516244556418425,
          1.7918442573305386,
          -0.561228168650376,
          1.373573521792436,
          -0.10476033382201534,
          -0.1675682558411097,
          -0.09873737747145306,
          0.28988184340597645,
          1.796648374006591,
          -0.03943629824227768,
          -0.6462780945065429,
          1.4969347091045013,
          -0.9057156611547198,
          -0.20063861878904454,
          0.9356683982159071,
          -1.9443840648613038,
          1.675830704213556,
          0.6343876514006449,
          0.20441980914419525,
          0.5592836858355243,
          0.8938103779231021,
          1.5534771487402723,
          -1.382475536155714,
          -0.1884001082140557,
          -0.3806791348022435,
          0.9337637537960546,
          0.6295704669809024,
          -0.6853992718620614,
          -1.799548630028288,
          1.5535014583756368,
          -0.8681264258346881,
          -0.43034938476387896,
          -0.728845725044085,
          -0.02301836453198951,
          -0.27075463537972855,
          0.6685392512839325,
          0.1353281809819408,
          1.0096275030539856,
          1.087289978998089,
          0.7782971408034972,
          -1.8765971963938337,
          -0.23173675537281133,
          -0.9553141288329898,
          -0.8290989983206871,
          -0.2075463092585555,
          -1.5819843403223885,
          0.4983104522133849,
          -1.0839607666772801,
          0.0021002579737596713,
          -1.0759031770840137,
          1.0874065151645478,
          0.8151762126716834,
          0.3345891043992561,
          0.8812554939688887,
          -0.3527770180047003,
          -0.8055565460415565,
          -1.1822762147516575,
          -0.6335367802371689,
          0.40865776296309125,
          -0.2893740878690872,
          -2.047562508565272,
          0.6359894727679699,
          0.7192914239327021,
          0.2766473819153568,
          -0.046933081381755365,
          0.536867276856694,
          0.6308039642915355,
          -2.0040455743966175,
          0.27665690414572003,
          1.2485436231961604,
          0.1697304920903766,
          -0.6346316097472056,
          0.9046829538773801,
          1.2501718011897298,
          -0.73534338226227,
          -0.44243947724419797,
          -2.3143392712016553,
          -0.6781139435112719,
          0.8862095023199157,
          1.5944501564973534,
          -2.16780212913655,
          0.05426598477621694,
          0.9607221581488493,
          -1.082486297705972,
          0.16521660681677003,
          0.2442122658431829,
          -0.3324496004023006,
          -0.6926052379789882,
          0.5342386418744316,
          0.8223583057833356,
          -0.2966284948081211,
          -0.39762641621094097,
          1.6052674246202452,
          -0.059062492872940416,
          1.0047034952778735,
          -0.19656533746863541,
          0.11545562003208108,
          0.7836475862438899,
          0.7752665859585565,
          -1.4159989801842194,
          -1.6707839196880347,
          0.12077589823295563,
          -1.6977054128579736,
          -0.5545495271111842,
          -0.9380159844120693,
          -0.008505684728062743,
          -0.5536131510549722,
          -0.2988869145257809,
          0.6926495541091183,
          0.8427346691290006,
          -0.13396058252273205,
          0.6993589099114068,
          -1.2854642506389122,
          0.5647391350895796,
          -1.8015667324671463,
          -2.1148433189645326,
          0.21161904591740924,
          -1.4346504104340903,
          -0.5152633106510501,
          0.5823967581536134,
          0.6503532262190029,
          -0.7969349076633725,
          -0.298514406402296,
          1.1074441912747417,
          1.0940821209630653,
          0.4758046911915932,
          -0.9465946008260959,
          0.8694550950495287,
          -0.638689419090515,
          1.4025177351248796,
          -0.35319812114065935,
          0.6779791942270178,
          -0.41755787881153417,
          0.12151338604872401,
          1.5033845927782759,
          0.6835595532480854,
          -1.1154727342996866,
          -1.327406238147098,
          1.8731654950285679,
          0.5995816497304378,
          0.026242300032506667,
          1.8373686806144576,
          -0.5486144525492367,
          -0.03477050510612724,
          2.832299566883359,
          -0.45094791625267716,
          -0.9869769598385232,
          0.26764728406827903,
          -1.2361417829503054,
          -0.08940025057054717,
          0.23254468751943932,
          0.4476938744838995,
          -0.7164611928827396,
          -0.850491963016454,
          0.3801145736776509,
          1.376113789439639,
          -0.9356333269065585,
          -0.029489501720670806,
          0.11310558484988778,
          1.1899220491536808,
          0.9797087186507697,
          1.5515622841077776,
          -0.09121716695411991,
          -0.975541880521083,
          -1.7822733625382294,
          -0.2351005153295923,
          -1.1311719328279903,
          1.3970212679405618,
          -0.6775474905099724,
          0.1589912891078439,
          -1.1373381918658103,
          0.7317052770908996,
          -2.4599220139406723,
          -0.4736335502274855,
          -0.26166905624566345,
          -0.39300226957879586,
          -0.2633988937783924,
          0.8572130694372907,
          0.09278765502261528,
          -1.19010263893131,
          -0.5797835840805422,
          0.1576626771998344,
          -0.9670191126679972,
          -2.68819619262729,
          -0.15097253443459419,
          1.5480105155790151,
          0.33495968188421155,
          -1.527017163932871,
          -0.6799816392376324,
          -0.11449427774753959,
          -0.2448008532165156,
          -0.9532718789445042,
          -1.0952035370222242,
          0.48028234986566326,
          -1.1334027093033376,
          0.326020830453386,
          -0.9662970464539252,
          0.9291486195497393,
          -0.4990051150671206,
          -1.8111258561853727,
          -0.12011374533596482,
          1.0854737146249407,
          0.6475902591409806,
          1.9887866284310538,
          0.4478996969580516,
          0.6749135492156396,
          0.6608353520652989,
          -0.3191032380283411,
          -0.2531800926491636,
          0.8558726791583618,
          -0.5236726978317494,
          -0.7747912415302098,
          -0.45302396380743065,
          -0.32678253840484034,
          -1.805460673204037,
          0.9875326601156915,
          0.5135450624306053,
          -1.0469763954116669,
          0.503127607095408,
          0.35274629703444965,
          -1.3320740964093705,
          -0.8295444543321213,
          1.2334692799595635,
          -0.10955323015992392,
          -2.336330823748811,
          -0.3258834288233246,
          1.4612228069101314,
          2.305380870780675,
          -0.2304837402833561,
          -0.8128925744991944,
          2.010700012994329,
          -0.9243819603542747,
          -0.45781440429477116,
          -0.5135466052809766,
          -0.4779232735096703,
          -1.0102370282673292,
          0.030599602008272008,
          0.2589456401776591,
          0.743988990299424,
          0.5778438466812366,
          1.4056390263326803,
          0.8016846067219817,
          1.221593833355579,
          1.7731235352795005,
          -0.6245585300846794,
          -0.827938842707591,
          2.120238819615745,
          -0.6499378488798025,
          -0.629213566320353,
          -1.4322490149290503,
          0.5720864625303622,
          1.3486505751817848,
          -1.7654358310114056,
          1.0079900708901963,
          0.6839756307932872,
          0.3250322781521372,
          1.8588144731805507,
          -0.3268939954555648,
          1.3423284606369164,
          0.451225109157089,
          -1.0520138316691843,
          0.21136950309596791,
          -0.5123112527328674,
          -1.0047193445506344,
          -1.0078357392744006,
          0.9019347526909796,
          0.89995553022071,
          0.665314225778156,
          0.0635023828125519,
          -1.0100591857825034,
          0.5961687701780994,
          0.5909190632722107,
          0.13291892816851436,
          -0.8386056632938601,
          -0.16213859012130563,
          1.2893218716843555,
          0.5796720819730012,
          -1.303078362218689,
          -0.19096926751232537,
          -1.791626341320868,
          0.1630781282028292,
          1.5724656522420177,
          -0.04987953379394287,
          -0.5046621898927465,
          0.41147255050819725,
          -0.3368241806079868,
          1.8000957246871294,
          -0.4063342914142394,
          2.9365578524724576,
          0.10335226998634178,
          0.023212606124576964,
          0.8121112279794669,
          -0.215578826293284,
          -0.45914900424110716,
          -1.2901016701323385,
          -0.6848612268268065,
          0.26129410346696974,
          -1.5584813816458685,
          1.3488401487885178,
          0.4983119727708525,
          -0.8374952661867959,
          -0.3995098312544629,
          1.208278529646244,
          -0.7994354467865477,
          -0.4157232620648333,
          1.041030117929567,
          0.005502580233185879,
          -0.8654864565950673,
          -0.31741698895265674,
          0.9468083174584291,
          -0.6503048584578822,
          -0.6648860608554402,
          0.6662546402162375,
          -1.1585718831694456,
          0.06342121246354414,
          -1.450778416984173,
          -0.07179682359142338,
          -0.621524891303725,
          -1.8190385804879377,
          1.0869876326982175,
          -0.6332730957157267,
          0.47817313032906456,
          0.4640243972996268,
          0.4686525111227656,
          -1.0844081869458326,
          1.1073968870742912,
          -0.6213959779269727,
          -0.6466862478032596,
          -1.0683020208472265,
          0.09252440958907023,
          1.6804538536667655,
          0.36593891393651073,
          -0.7107346450320496,
          0.6604152212673534,
          -0.7183838615580099,
          1.1109291446579144,
          0.5733335875623499,
          0.24414128903730362,
          0.3678474222983149,
          0.14630783536613284,
          1.0601621469051659,
          -0.05309577694323875,
          -0.34343984426777807,
          -0.9943632820831156,
          -0.039488438321257154,
          -1.072151538865067,
          1.6303111811061088,
          1.3809877307131724,
          -0.8563578948376617,
          1.9333687428255852,
          -0.5206348773617027,
          1.2743466642034669,
          -0.3201219346131042,
          -0.7218936077751222,
          -0.4166271860096685,
          0.31392865335078746,
          0.10535817999994114,
          0.7256147782174615,
          0.31916937216149316,
          0.03251021503545696,
          -0.06742718665404729,
          0.8604015321377071,
          -0.36277781981543566,
          -0.6702160094265733,
          1.7698524378939666,
          0.16788328266379868,
          -0.7514127050524244,
          -0.1545945432443715,
          0.11135904056369449,
          0.775822521523045,
          -0.988988305843836,
          0.3164413354664492,
          -2.0436548164003816,
          0.5905691415753007,
          -1.6600247388000264,
          0.2695190164881088,
          -1.3781363592391436,
          0.7277892748746049,
          0.7721632437005329,
          -1.3287267802685978,
          -0.4060904347362406,
          0.2977566239683265,
          1.6223560246979547,
          0.07409689078608882,
          1.2550742539712716,
          0.5852007575954623,
          0.3481487049355059,
          -0.7141128867442559,
          0.16033953037455786,
          0.652610504654189,
          -0.345368186027198,
          0.106787919264029,
          2.755481834543232,
          0.3971233770857111,
          0.42567871495328724,
          0.07656913788317596,
          0.710914494178851,
          1.581641111104574,
          0.8749014143765595,
          -0.20741914279680734,
          1.4674761782799888,
          1.4680861760409012,
          0.04135216182361241,
          -0.23550551026299624,
          0.5778669439934867,
          -0.020080575695466393,
          -0.8469333890919238,
          -0.6635660580343494,
          -2.5315449160880603,
          0.613809883675671,
          -2.4002046999119506,
          -1.012746748893672,
          -0.02173635415389062,
          2.477422616865574,
          -1.2960211623462647,
          -0.10643035892190131,
          0.9817478137161971,
          0.5375554156024359,
          -0.3362410668616471,
          0.5760455308673228,
          -0.4038083629251194,
          1.2587846664156201,
          1.4037533795234958,
          0.010706601826188456,
          -1.04913024430251,
          1.2971931534780115,
          -0.14337985566624534,
          0.5266297004454219,
          0.644740295606605,
          1.410531304793525,
          -0.13905791120651098,
          -1.5030068769502063,
          -0.03203543033105892,
          -0.4935331538936063,
          0.6275575376660096,
          2.332436945982122,
          0.22681035691864077,
          0.8029716738181791,
          -0.6571666556322505,
          -0.267912033944292,
          -0.6567776501445812,
          0.24033623219226863,
          -1.8406267179276445,
          0.3371965942828256,
          0.549526818691509,
          1.0242637893962245,
          2.085318201436529,
          -0.5740400990684854,
          0.1467207927920932,
          -0.22036368612102336,
          0.9042758935461991,
          -0.7809760051068205,
          -0.41319960950594925,
          -0.7522011253319434,
          0.8620831564068155,
          0.4171900119745314,
          -0.5970216012058877,
          -1.788025758134485,
          -0.6455052316479013,
          0.6747467006422528,
          0.8669066152971803,
          -0.6385956249599561,
          -0.25828986066865134,
          0.953707262187601,
          -0.07899876895049755,
          -0.816962558855851,
          0.8460238311565617,
          0.8420637727721608,
          0.6932842581822589,
          -1.5966258318051885,
          1.7887087173539113,
          -0.46199233795842054,
          0.7032694039716034,
          -0.650933126911371,
          0.771044779798359,
          -0.4171681656329028,
          -1.2532338890269203,
          0.18634617544046933,
          0.9803242617000183,
          -0.0786026548749819,
          2.6195387713942995,
          -0.22887715543665238,
          -0.534739086598932,
          -1.9351111028598118,
          -0.4732195532310553,
          -0.511781377343305,
          -0.11171605650345906,
          -0.8298423196655056,
          0.6187477429594543,
          -1.3602808365695531,
          -1.7230018176284791,
          0.40462684778162045,
          -1.187132755672651,
          -1.623150672747997,
          -0.4701763280463924,
          -1.4111208738889107,
          -0.40116948002528563,
          -0.8112106936493513,
          0.10462238460955754,
          -0.36059414011912694,
          -1.4815710575862098,
          0.5550012150529697,
          0.823715990963459,
          1.8278792870353935,
          0.9007619211050971,
          -0.47658155563503835,
          0.7192541002622803,
          -0.13567437158866869,
          0.8168941514378776,
          -0.5028230266144098,
          -0.3657854417541551,
          -0.20004322029089636,
          0.5792368898276035,
          0.7384616369166276,
          -1.231375823303384,
          0.06041872749278998,
          1.4454007471911852,
          -0.8629478224204741,
          1.3677081972282186,
          -0.7996709686272327,
          -0.7110498040844245,
          0.27194541948377404,
          0.5077914821648977,
          0.4626860721969114,
          1.2685585260883345,
          -0.5038433226054055,
          -0.3742438454180807,
          -0.07126760819516563,
          -1.7183712501891562,
          -0.19820181136517961,
          1.1798297602255092,
          -1.6270644043286508,
          0.049686211568767236,
          -0.09783971440436313,
          0.011718721639304227,
          -1.802056258036613,
          0.6931669421482062,
          1.6545779983817945,
          -0.8796614672141928,
          0.8851955430520616,
          -0.6241913945372706,
          -0.3061612276257841,
          0.5572257024277824,
          -0.11882996883256469,
          1.2785092770511006,
          0.15139472115639815,
          -0.4247888985429842,
          0.07839283315897354,
          0.9003127163223011,
          0.4336973381298064,
          1.661603589313397,
          -0.5746826384695054,
          -1.759381334681301,
          -0.7906314401634627,
          0.10451878141013958,
          -1.3965938480046975,
          0.8914337742376394,
          2.336936991960433,
          0.0018461184372607388,
          -0.22230923023519158,
          -0.37594557740605666,
          0.5048854497447954,
          1.7038168555007343,
          -0.454692892887849,
          -1.5432816899350896,
          1.2131852217556658,
          0.7839160751837826,
          0.23337007728716627,
          0.2005544419240011,
          1.063969651352838,
          -0.08006879579327576,
          -0.8186449669120572,
          0.544534597484953,
          0.5674530084029742,
          -0.29103923339507815,
          -0.9365014194553777,
          -0.10113225688141218,
          -1.6499758584163615,
          0.46345787938515315,
          -0.7347246176649392,
          -1.6825656343827546,
          -1.5710665129384995,
          0.5528867420800246,
          -0.8646313791268379,
          -0.8764583780845825,
          -0.0225977422887953,
          0.3487409550452284,
          0.9837052457625572,
          0.8360924391166895,
          2.2863339601032022,
          -3.004111217664183,
          -0.9082331279270613,
          0.8276079428303257,
          -0.7281077497831391,
          -0.00853772597174215,
          -0.1501453583270023,
          -0.09175548167394677,
          0.3922262791111641,
          -0.2089974395851202,
          0.07545202461592311,
          -0.34528865077758236,
          0.744588697654746,
          0.6383110613722702,
          0.6179951805355097,
          0.9460866146439956,
          -1.78058245779794,
          -0.02660526253662765,
          1.3087472937874216,
          1.204588867882531,
          0.4312949063286375,
          -1.4413337617332471,
          0.7141443783356564,
          -0.07351090094335207,
          -0.16281006700070572,
          0.9998404461834401,
          1.9703011631944245,
          1.088835936624346,
          1.5643648516047586,
          -1.047953163557751,
          -0.4344691271248105,
          0.068186437014502,
          -0.013921410844212674,
          -0.5667087847550024,
          -1.273793234285531,
          -0.4989050534460012,
          0.45153939776482616,
          0.8205959461629505,
          -1.0561787483418257,
          -2.143030904429838,
          0.8885051013543678,
          1.2506798413656182,
          -2.0200678770312073,
          0.40335893642330495,
          0.7428569823070638,
          0.6668194790383125,
          -0.5518487309312823,
          -0.6638911663495664,
          1.2384521074754526,
          1.679585761491735,
          0.4958964055770979,
          -0.24195295578917073,
          1.2554281455023364,
          1.236728790723998,
          0.44176233354298394,
          -0.31775628515698195,
          -0.5774982404424648,
          -0.07434464410966438,
          -1.1628433956799162,
          1.6794551374281128,
          0.1040277434076096,
          0.2282447241644066,
